{"graph": {"_type": "graph-file", "path": "media/graph/graph_summary_9187c01755962a53c655.graph.json", "sha256": "9187c01755962a53c6558006a666d55493c91c9583bc78c66878c41a6a4496d8", "size": 967}, "learning_rate": 0.0010000000474974513, "_timestamp": 1648588044, "_runtime": 1708, "parameters/conv1d.weights": {"_type": "histogram", "values": [2, 6, 10, 9, 11, 7, 7, 9, 6, 11, 12, 12, 7, 8, 9, 10, 9, 8, 10, 9, 16, 11, 8, 11, 10, 8, 10, 9, 6, 9, 9, 6, 10, 4, 12, 5, 11, 11, 8, 7, 10, 11, 5, 19, 7, 9, 19, 5, 3, 15, 11, 4, 12, 11, 12, 9, 13, 10, 13, 7, 8, 7, 2, 1], "bins": [-0.25886842608451843, -0.25076499581336975, -0.24266158044338226, -0.23455816507339478, -0.2264547348022461, -0.2183513194322586, -0.21024790406227112, -0.20214447379112244, -0.19404105842113495, -0.18593764305114746, -0.17783421277999878, -0.1697307974100113, -0.1616273820400238, -0.15352395176887512, -0.14542053639888763, -0.13731710612773895, -0.12921369075775146, -0.12111026793718338, -0.1130068451166153, -0.10490342974662781, -0.09680000692605972, -0.08869658410549164, -0.08059316873550415, -0.07248974591493607, -0.06438632309436798, -0.056282900273799896, -0.04817948117852211, -0.040076062083244324, -0.03197263926267624, -0.023869218304753304, -0.015765797346830368, -0.0076623763889074326, 0.00044104456901550293, 0.008544465526938438, 0.016647886484861374, 0.02475130744278431, 0.032854728400707245, 0.04095815122127533, 0.049061570316553116, 0.0571649894118309, 0.06526841223239899, 0.07337183505296707, 0.08147525787353516, 0.08957867324352264, 0.09768209606409073, 0.10578551888465881, 0.1138889342546463, 0.12199235707521439, 0.13009577989578247, 0.13819919526576996, 0.14630262553691864, 0.15440604090690613, 0.1625094711780548, 0.1706128865480423, 0.17871630191802979, 0.18681973218917847, 0.19492314755916595, 0.20302656292915344, 0.21112999320030212, 0.2192334085702896, 0.2273368239402771, 0.23544025421142578, 0.24354366958141327, 0.25164708495140076, 0.25975051522254944]}, "parameters/conv1d.bias": {"_type": "histogram", "values": [1, 0, 0, 0, 0, 0, 0, 0, 0, 0, 0, 2, 0, 0, 0, 1, 2, 2, 0, 0, 0, 0, 0, 0, 0, 0, 1, 0, 1, 0, 0, 0, 0, 0, 0, 0, 0, 1, 1, 0, 1, 0, 0, 0, 0, 0, 0, 0, 0, 0, 1, 0, 0, 1, 0, 0, 0, 0, 0, 0, 0, 0, 0, 1], "bins": [-0.015140448696911335, -0.014470070600509644, -0.013799691572785378, -0.013129313476383686, -0.01245893444865942, -0.011788556352257729, -0.011118177324533463, -0.010447799228131771, -0.009777420200407505, -0.009107042104005814, -0.008436663076281548, -0.007766284514218569, -0.00709590595215559, -0.006425527390092611, -0.005755148828029633, -0.005084770265966654, -0.004414391703903675, -0.00374401337467134, -0.0030736348126083612, -0.0024032562505453825, -0.0017328776884824038, -0.0010624992428347468, -0.00039212065166793764, 0.00027825788129121065, 0.0009486364433541894, 0.0016190150054171681, 0.002289393451064825, 0.002959772013127804, 0.0036301505751907825, 0.004300529137253761, 0.00497090769931674, 0.005641286261379719, 0.0063116648234426975, 0.006982043385505676, 0.007652421947568655, 0.008322800509631634, 0.008993178606033325, 0.009663557633757591, 0.010333935730159283, 0.011004314757883549, 0.01167469285428524, 0.012345071882009506, 0.013015449978411198, 0.013685829006135464, 0.014356207102537155, 0.015026586130261421, 0.015696965157985687, 0.016367342323064804, 0.01703772135078907, 0.017708100378513336, 0.018378479406237602, 0.01904885657131672, 0.019719235599040985, 0.02038961462676525, 0.021059993654489517, 0.021730370819568634, 0.0224007498472929, 0.023071128875017166, 0.023741507902741432, 0.02441188506782055, 0.025082264095544815, 0.02575264312326908, 0.026423022150993347, 0.027093399316072464, 0.02776377834379673]}, "parameters/dense.weights": {"_type": "histogram", "values": [3, 2, 3, 3, 6, 8, 4, 10, 13, 7, 9, 9, 7, 3, 8, 8, 6, 12, 11, 13, 7, 15, 7, 7, 9, 10, 6, 12, 8, 10, 10, 7, 10, 9, 8, 5, 6, 6, 8, 4, 6, 9, 5, 13, 9, 11, 7, 9, 9, 11, 12, 9, 6, 9, 10, 9, 12, 9, 6, 9, 9, 4, 6, 4], "bins": [-0.2201116532087326, -0.21325136721134186, -0.20639106631278992, -0.19953078031539917, -0.19267047941684723, -0.18581019341945648, -0.17894989252090454, -0.1720896065235138, -0.16522930562496185, -0.1583690196275711, -0.15150871872901917, -0.14464843273162842, -0.13778813183307648, -0.13092784583568573, -0.12406755238771439, -0.11720725893974304, -0.1103469654917717, -0.10348667204380035, -0.09662637859582901, -0.08976608514785767, -0.08290579169988632, -0.07604549825191498, -0.06918520480394363, -0.06232491508126259, -0.055464621633291245, -0.0486043281853199, -0.041744034737348557, -0.03488374128937721, -0.028023449704051018, -0.021163156256079674, -0.014302863739430904, -0.007442570757120848, -0.000582277774810791, 0.006278015207499266, 0.013138308189809322, 0.019998600706458092, 0.026858894154429436, 0.03371918573975563, 0.040579479187726974, 0.04743977263569832, 0.05430006608366966, 0.061160359531641006, 0.06802064925432205, 0.0748809427022934, 0.08174123615026474, 0.08860152959823608, 0.09546182304620743, 0.10232211649417877, 0.10918240994215012, 0.11604270339012146, 0.1229029968380928, 0.12976329028606415, 0.1366235762834549, 0.14348387718200684, 0.15034416317939758, 0.15720446407794952, 0.16406475007534027, 0.1709250509738922, 0.17778533697128296, 0.1846456378698349, 0.19150592386722565, 0.1983662247657776, 0.20522651076316833, 0.21208681166172028, 0.21894709765911102]}, "parameters/dense.bias": {"_type": "histogram", "values": [1, 0, 0, 0, 0, 0, 0, 0, 0, 0, 0, 0, 0, 0, 0, 0, 0, 0, 0, 0, 0, 0, 0, 0, 0, 0, 1, 0, 0, 0, 0, 0, 0, 0, 0, 0, 0, 0, 0, 0, 0, 0, 0, 0, 1, 0, 0, 0, 0, 0, 0, 0, 0, 0, 0, 0, 0, 0, 0, 0, 0, 0, 0, 1], "bins": [0.011933793313801289, 0.012002620846033096, 0.012071448378264904, 0.012140274979174137, 0.012209102511405945, 0.012277930043637753, 0.01234675757586956, 0.012415584176778793, 0.012484411709010601, 0.012553239241242409, 0.012622066773474216, 0.01269089337438345, 0.012759720906615257, 0.012828548438847065, 0.012897375971078873, 0.012966202571988106, 0.013035030104219913, 0.013103857636451721, 0.013172685168683529, 0.013241512700915337, 0.01331033930182457, 0.013379166834056377, 0.013447994366288185, 0.013516821898519993, 0.013585648499429226, 0.013654476031661034, 0.013723303563892841, 0.013792131096124649, 0.013860957697033882, 0.01392978522926569, 0.013998612761497498, 0.014067440293729305, 0.014136267825961113, 0.014205094426870346, 0.014273921959102154, 0.014342749491333961, 0.01441157702356577, 0.014480403624475002, 0.01454923115670681, 0.014618058688938618, 0.014686886221170425, 0.014755712822079659, 0.014824540354311466, 0.014893367886543274, 0.014962195418775082, 0.015031022019684315, 0.015099849551916122, 0.01516867708414793, 0.015237504616379738, 0.015306332148611546, 0.015375158749520779, 0.015443986281752586, 0.015512813813984394, 0.015581641346216202, 0.015650467947125435, 0.015719296410679817, 0.01578812301158905, 0.015856949612498283, 0.015925778076052666, 0.0159946046769619, 0.016063431277871132, 0.016132259741425514, 0.016201086342334747, 0.01626991480588913, 0.016338741406798363]}, "parameters/dense_1.weights": {"_type": "histogram", "values": [1, 0, 0, 2, 4, 5, 4, 6, 10, 7, 12, 5, 6, 8, 7, 9, 7, 6, 9, 13, 12, 5, 8, 14, 11, 7, 12, 11, 8, 6, 11, 11, 4, 13, 8, 6, 7, 7, 8, 12, 6, 6, 8, 7, 7, 9, 12, 11, 10, 12, 8, 10, 12, 10, 9, 13, 7, 8, 7, 8, 7, 3, 14, 6], "bins": [-0.23825672268867493, -0.23124681413173676, -0.2242368906736374, -0.21722698211669922, -0.21021707355976105, -0.20320716500282288, -0.1961972415447235, -0.18918733298778534, -0.18217742443084717, -0.1751675009727478, -0.16815759241580963, -0.16114768385887146, -0.1541377604007721, -0.14712785184383392, -0.14011794328689575, -0.13310803472995758, -0.12609811127185822, -0.11908820271492004, -0.11207828670740128, -0.1050683781504631, -0.09805846214294434, -0.09104855358600616, -0.0840386375784874, -0.07702872157096863, -0.07001881301403046, -0.06300889700651169, -0.05599898472428322, -0.04898907244205475, -0.04197916015982628, -0.03496924787759781, -0.02795933373272419, -0.02094941958785057, -0.0139395073056221, -0.006929594092071056, 8.031865581870079e-05, 0.007090231403708458, 0.014100144617259502, 0.021110057830810547, 0.028119970113039017, 0.03512988239526749, 0.042139798402786255, 0.049149710685014725, 0.056159622967243195, 0.06316953897476196, 0.07017944753170013, 0.0771893635392189, 0.08419927209615707, 0.09120918810367584, 0.09821909666061401, 0.10522901266813278, 0.11223892867565155, 0.11924883723258972, 0.1262587457895279, 0.13326866924762726, 0.14027857780456543, 0.1472884863615036, 0.15429840981960297, 0.16130831837654114, 0.1683182269334793, 0.17532815039157867, 0.18233805894851685, 0.18934796750545502, 0.1963578760623932, 0.20336779952049255, 0.21037770807743073]}, "parameters/dense_1.bias": {"_type": "histogram", "values": [1, 0, 0, 0, 0, 0, 0, 0, 0, 0, 0, 0, 0, 0, 0, 0, 0, 0, 0, 0, 0, 0, 0, 0, 0, 0, 0, 0, 0, 0, 0, 0, 0, 0, 0, 0, 0, 0, 0, 0, 0, 0, 0, 0, 0, 0, 0, 0, 0, 1, 0, 0, 0, 1, 0, 0, 0, 0, 0, 0, 0, 0, 0, 1], "bins": [-0.002471722662448883, -0.002423455473035574, -0.0023751885164529085, -0.0023269213270395994, -0.0022786541376262903, -0.002230387181043625, -0.0021821199916303158, -0.0021338528022170067, -0.0020855858456343412, -0.002037318656221032, -0.001989051466807723, -0.0019407843938097358, -0.0018925173208117485, -0.0018442502478137612, -0.0017959830584004521, -0.0017477159854024649, -0.0016994489124044776, -0.0016511817229911685, -0.0016029146499931812, -0.001554647576995194, -0.0015063803875818849, -0.0014581133145838976, -0.0014098462415859103, -0.0013615790521726012, -0.001313311979174614, -0.0012650449061766267, -0.0012167777167633176, -0.0011685106437653303, -0.001120243570767343, -0.001071976381354034, -0.0010237093083560467, -0.0009754421771503985, -0.0009271750459447503, -0.000878907972946763, -0.0008306408417411149, -0.0007823737105354667, -0.0007341066375374794, -0.0006858395063318312, -0.000637572375126183, -0.0005893053021281958, -0.0005410381709225476, -0.0004927710397168994, -0.0004445039667189121, -0.00039623683551326394, -0.0003479697334114462, -0.0002997026313096285, -0.0002514355001039803, -0.00020316839800216258, -0.00015490128134842962, -0.00010663417197065428, -5.8367055316921324e-05, -1.009994502965128e-05, 3.8167167076608166e-05, 8.643428009236231e-05, 0.00013470138947013766, 0.0001829685061238706, 0.00023123560822568834, 0.0002795027394313365, 0.00032776984153315425, 0.000376036943634972, 0.00042430407484062016, 0.0004725711769424379, 0.0005208383081480861, 0.0005691053811460733, 0.0006173725123517215]}, "epoch": 0, "loss": 0.04265203699469566, "dense_loss": 0.022004665806889534, "dense_1_loss": 0.020647378638386726, "_step": 0, "best_loss": 0.04265203699469566, "best_epoch": 0, "_wandb": {"runtime": 87}}